22,16,8,1
0.19492712343022228,0.5965008276869831,0.4924692484024761,0.9210948947794954,-1.5359410171019492,-0.2801490840079645,-1.2332792549315854,1.327004518727955,0.1384112874345156,-0.2411200630005159,-0.2839745910172384,0.17440848944006646,0.3851397878435715,0.041403044916799886,0.11670322596101607,-0.02582163170845342,0.473801501174315,-1.3547800854329926,0.3312441207046734,-0.06400806303567765,0.21465684663526577,-0.22636454451034896,-0.7035238143245748,0.47750204781009664,0.38417547864602836,0.6652477005651243,-0.6125819825566549,-0.9406123107768098,-0.2620171684848002,0.10382803680075257,0.2854984315096716,0.4277165652067148,-0.2437243486883608,-0.8014268742589615,0.031184899762830152,-0.628814978410511,-0.2377624278689957,-0.09222413028986409,0.5890644010371292,0.5619118103076689,-0.9475892226899337,-0.7330643712618011,-1.0587279365306015,0.6582486676677634,0.2502240132542605,0.33260455379057485,-0.005448408692835105,0.43717835364305463,0.18162506700338196,0.14822847549520568,-1.0181497687273875,-0.5676677739007714,-0.14372120853171977,0.40400903981062203,-0.6067848124579821,-0.45905576432729356,-0.6483726290766606,-0.016902805318024235,-0.9544043358765532,-0.7926001279401267,0.7554724736995809,-0.0381953922820391,-2.0366758120777315,1.2661364090768754,0.7913060997584183,0.5880540929635255,0.5712852482959255,-0.36295867556827616,-0.41713045163071333,1.0951547727460103,1.1960157985363002,0.5176936223681348,0.4184990651798284,0.3092527562394749,-0.8434904377039097,-0.7228338135922576,-1.0903085080455857,-0.1687322216387245,-0.7113131197977955,-0.16434628614227778,0.47702618792876406,0.33557653983457847,1.1000898522363505,0.46775984433422546,-0.5910696962179173,-0.12321526030947247,-0.3434330646936897,-0.07338285498879504,0.9091854854609756,0.839959590525258,-0.1953970991825524,-0.05393942624569432,0.5464818538229279,0.017362458360788483,-0.47539531150919884,-0.7725012317247515,0.696095411657206,0.47547563594172354,0.6530689729209378,0.8980307064093351,0.510174828005769,0.7297969834158944,-0.009900063509094848,0.06617178812981361,0.039774324861162225,-0.4635876469496382,0.08993905351430233,0.4567592157141779,-0.5962689784124044,0.675582169468049,-0.4477991127531561,0.5284748236618796,-0.8908673786198118,0.856213116951742,-0.05351242129204929,-0.8038668430140719,0.7090849786818664,-0.20701079097126335,-0.5418252117879516,-0.7380870289760875,0.4375201132625096,-0.7253121842761316,-0.2618316451045815,0.3533619651838312,-0.774844066086601,0.621035331625003,0.145819417110711,-0.7728820854559079,-0.15207204435032,-0.32648687370291174,-0.7804236700227108,-0.7488446303410969,-0.12254500969591418,0.9031860293904763,-0.08692625395568385,-1.0062220505646398,-0.41452864457626154,-0.27547237199790336,0.2863340136356914,-0.2969374582183836,0.6147051036401203,-1.0511453561406625,0.5080449242134915,-0.5622381274264523,0.48890644862935423,-0.5137550735234315,-0.13855072660993253,-0.9263950033372792,-0.4827983400197276,0.07239476154067134,1.009138905388525,0.13305837289182718,0.9537641926301842,1.1846594585596522,-0.6271558010736047,0.21834003682036954,0.5975339311957253,-0.2136918211334899,0.8111003944493501,-0.3516342831778973,-0.13718983186173617,-0.11484731735683083,0.1076386106932507,0.45169930552478305,-0.5387561977181958,-0.42720046441592524,0.3177613177325055,0.37844833917673393,1.0441905331986978,0.6252067694459269,0.1428054789875447,-0.5162073645391383,0.14842006090167054,-1.1798289817269583,-0.5360413471419259,0.6650750419666716,-0.8930492985371477,-0.5910239130274196,0.39197186604457446,0.654315395240455,-0.3696619010120481,-0.006168401833183109,0.15967678778799768,0.4539011941975909,-0.795577852787792,0.12667945888326299,0.8923938044888244,0.5466629029485224,-0.10156528478353813,-0.028556448322205004,-0.1440596363425479,0.4336890879207411,-0.8127489107611018,-0.39640107086108334,0.5120586992033541,1.0563050062680257,-0.03798853950699607,0.258181675541586,-0.6202469534682644,0.9713330000289521,-0.2536845230954769,0.12699773029512437,-0.010831127950457618,0.6842991019851715,-0.12099227529380817,0.10425087383279116,-1.3451993840258691,0.9769779794843653,0.11295639046270183,0.23137829755128556,0.3963216995372803,-0.6608073833667033,-0.3564906902897044,0.6697001545345826,-0.9397137562624291,0.4156639102220819,-0.3555817167062719,1.5035239220702223,-0.06247045104519352,-0.3785344585407152,-0.11446271470472562,1.6501312112699453,-0.061987533747899046,1.2061182957591732,2.0694457236011297,-0.5663055150989297,-0.8315323690610339,0.6153523977912725,0.1356880404159047,-0.957311411497691,0.27612836539447033,-1.2676334107160037,-0.42972384530479796,-0.08481328746244451,-0.2645812189701143,0.7049802960457088,1.289007778626813,-0.6076014629384074,-1.2703158719174974,1.709993045696185,-0.2770203465088328,-0.8582350636651609,0.4209298636494024,0.5689037652565501,-0.16386494551406144,-0.9578497171798824,-1.0350467651912565,-0.9648634157322088,0.3900607610302216,-0.9119566867051246,-0.14211903188908612,-0.1823142005401744,0.5116748204048177,-0.5924645292057623,-0.1793968255313987,0.010607437931749267,-0.8689504832902455,0.2839708515656536,-0.746394484682634,-0.6499991687698148,0.8383520582775321,-0.14026968122763578,-0.7774220356124584,-0.06144675763750752,-0.07678232086763243,-0.5862213522780559,-0.19050004739328733,-1.2066552865451838,0.8317523461541704,-0.2845414742987215,0.29505953908418214,0.13691482969606392,0.17156586787541683,-0.05049293037333714,-1.877028475645302,0.045437731733531654,0.10782431928870655,0.42443712618498464,-0.6083242948053023,-0.3446003365780923,-0.42019559471299245,-0.3348523234049094,0.35209018007756643,0.2730081853921557,0.6396816112869455,1.1446411904581526,-0.027686431821472065,0.30212340374683466,-0.3450697104426826,-0.6227104585665583,-0.8466819585719818,0.1816137580835917,0.17490969975951026,0.6336881146793656,-0.2584683155254438,-0.42324146997167106,0.42222119225128446,0.7721048642736735,0.9521119238855902,-0.9811500072786736,-0.16533635888205664,0.06735492769031759,-0.6232769478924434,-0.3917583066815623,-0.4394078535896938,-0.7019959156296062,0.28755436198956397,-0.8339670561033197,-0.12617308058181237,-0.5876823243316773,0.026804356421346476,0.9109270962227389,0.08119592326548813,-0.19844988880315043,-0.12174244081971826,0.7257687901061914,-0.4872408214641007,0.1460762114141085,0.8986718212144931,-0.4099039671905683,-0.8928413771559833,0.41679032868390015,-0.011595094256053472,0.3325310854561909,-0.7581615692661785,0.059328755246875566,-0.8561333015339939,1.7986650235510084,0.7385227879432992,0.07660492373012456,0.4374586566411085,0.7454011744835036,0.553827334038619,0.4274172590350767,0.7118773461439526,-0.3236017485283272,-0.6047840469043675,-0.7532992056705772,-0.2525060385093137,-0.7831717298851036,0.8487462106589886,-0.13065936015190194,0.7985305561464124,0.9942547583865168,-0.6316366518003184,-0.25859038957398606,0.49667532214713433,0.5401246752570327,0.33768345470642525,0.328926877978314,0.47246790615672446,-0.3751222263151977,-3.3643601438015285,-1.0240772533837506,1.121067859741625,-0.8527319518146395,0.4911237780654321,-0.2480983831809562,-0.12782838062992377,0.6715821606719652,1.4701548151635984,0.37109975920399646,-0.6594458147941794,0.035275474552910885,-0.7035158038779225,-0.5050680040979478,1.0999036914674316,1.814828730585666,-2.2047395637828178,-0.464678996416057,0.3554437763707073,-1.377117413960315,0.603286364252388,-0.6016157893033015,0.3649851562732431,-2.1861168860635116,1.1157807467920355,-0.288152329637095,-3.6394338135746183,0.3540574868283026,-0.3074113627306313,0.7502777735952408,-1.897085133216097,2.247948920653132,0.1807691457220665,0.892811897802241,0.7036442014595393,2.1173378960970033,-0.3437283945603665,-0.5654664752380156,-1.0311753939394166,1.0172409536181086,0.17782984809092175,-0.5837620056735908,1.4816281510682257,0.8772298476317005,1.1177986800490438,-0.7256062053516329,0.449961489183285,-0.6077083985272815,-1.7655408566195625,0.05389510137797795,-1.1336121576132685,-1.5505180321360468,1.7040818779052564,0.9524525944855476,-0.5631528621792957,0.5947209353593345,-0.6963946803778077,-1.7671476621100257,-2.277402080257574,-0.7589150214517274,-2.026968476977551,0.8774147292454892,1.6218671289006261,1.787064636730986,-0.6881434296009116,-0.3455524937502691,-0.2088742638890125,-0.7990761173694494,-0.9504062707144127,-0.38508227479193496,0.10523114988909567,-0.6603424241667978,0.09944544888982185,0.38944825406939937,-0.3972153521196665,0.10427731649695289,-0.9268091319755472,-0.4972369901384334,0.49395124577903793,-0.3734432588988023,0.9537055173269539,0.8817412671440387,0.7918194274493808,0.0826216237737953,-0.9751610571865359,-0.49298870611862455,-1.00672861687859,-0.6633458707853099,0.2574785956999268,1.46559904596907,0.7694784953880517,-0.603695901023994,-1.0736277096682567,-0.07912132831308578,0.8980693844639981,-0.8704350455674518,1.1780368068346894,0.4604316684591971,1.0750578655413434,-0.3496563988571476,-0.36949918229024314,0.7876128652408216,-0.022175751205889063,-0.21805838703642472,-0.09592316207668297,1.2689905259638496,1.299930636726687,-0.32137469234727734,1.5112761758708493,0.47618379952291207,-0.4193997495155683,-0.9896366183439687,-0.29676740575651955,0.5855767117576821,0.9813543013602614,-0.7892669782880437,0.22459200485319883,0.8281795683740059,-1.2425951722235102,-0.6448406317529927,0.652722070653833,0.3975257705977255,0.19772997133028108,0.44853304297814284,-0.46169739716514213,0.09469245576948222,2.2567811914003753,0.9193631124198788,5.736906729588162,8.050807424439167,-5.859005744290958,11.373869112691828,0.9997608400059914,-2.522052686016435,-7.321442101239052,0.019159226987895517